digraph Tree {
node [shape=box, style="filled, rounded", color="black", fontname="helvetica"] ;
edge [fontname="helvetica"] ;
0 [label="petal width (cm) <= 1.75\ngini = 0.66\nsamples = 95\nvalue = [42, 55, 53]\nclass = versicolor", fillcolor="#fbfefc"] ;
1 [label="sepal width (cm) <= 3.05\ngini = 0.52\nsamples = 63\nvalue = [42, 54, 3]\nclass = versicolor", fillcolor="#d5fae4"] ;
0 -> 1 [labeldistance=2.5, labelangle=45, headlabel="True"] ;
2 [label="petal width (cm) <= 0.65\ngini = 0.26\nsamples = 38\nvalue = [6, 52, 3]\nclass = versicolor", fillcolor="#59e996"] ;
1 -> 2 ;
3 [label="gini = 0.0\nsamples = 4\nvalue = [6, 0, 0]\nclass = setosa", fillcolor="#e58139"] ;
2 -> 3 ;
4 [label="sepal length (cm) <= 6.05\ngini = 0.1\nsamples = 34\nvalue = [0, 52, 3]\nclass = versicolor", fillcolor="#44e688"] ;
2 -> 4 ;
5 [label="gini = 0.0\nsamples = 21\nvalue = [0, 35, 0]\nclass = versicolor", fillcolor="#39e581"] ;
4 -> 5 ;
6 [label="sepal length (cm) <= 6.15\ngini = 0.26\nsamples = 13\nvalue = [0, 17, 3]\nclass = versicolor", fillcolor="#5cea97"] ;
4 -> 6 ;
7 [label="sepal width (cm) <= 2.7\ngini = 0.5\nsamples = 3\nvalue = [0, 2, 2]\nclass = versicolor", fillcolor="#ffffff"] ;
6 -> 7 ;
8 [label="gini = 0.0\nsamples = 1\nvalue = [0, 0, 2]\nclass = virginica", fillcolor="#8139e5"] ;
7 -> 8 ;
9 [label="gini = 0.0\nsamples = 2\nvalue = [0, 2, 0]\nclass = versicolor", fillcolor="#39e581"] ;
7 -> 9 ;
10 [label="petal length (cm) <= 5.05\ngini = 0.12\nsamples = 10\nvalue = [0, 15, 1]\nclass = versicolor", fillcolor="#46e789"] ;
6 -> 10 ;
11 [label="gini = 0.0\nsamples = 9\nvalue = [0, 15, 0]\nclass = versicolor", fillcolor="#39e581"] ;
10 -> 11 ;
12 [label="gini = 0.0\nsamples = 1\nvalue = [0, 0, 1]\nclass = virginica", fillcolor="#8139e5"] ;
10 -> 12 ;
13 [label="petal width (cm) <= 1.0\ngini = 0.1\nsamples = 25\nvalue = [36, 2, 0]\nclass = setosa", fillcolor="#e68844"] ;
1 -> 13 ;
14 [label="gini = 0.0\nsamples = 23\nvalue = [36, 0, 0]\nclass = setosa", fillcolor="#e58139"] ;
13 -> 14 ;
15 [label="gini = 0.0\nsamples = 2\nvalue = [0, 2, 0]\nclass = versicolor", fillcolor="#39e581"] ;
13 -> 15 ;
16 [label="sepal length (cm) <= 5.95\ngini = 0.04\nsamples = 32\nvalue = [0, 1, 50]\nclass = virginica", fillcolor="#843de6"] ;
0 -> 16 [labeldistance=2.5, labelangle=-45, headlabel="False"] ;
17 [label="petal length (cm) <= 4.9\ngini = 0.18\nsamples = 6\nvalue = [0, 1, 9]\nclass = virginica", fillcolor="#8f4fe8"] ;
16 -> 17 ;
18 [label="gini = 0.0\nsamples = 1\nvalue = [0, 1, 0]\nclass = versicolor", fillcolor="#39e581"] ;
17 -> 18 ;
19 [label="gini = 0.0\nsamples = 5\nvalue = [0, 0, 9]\nclass = virginica", fillcolor="#8139e5"] ;
17 -> 19 ;
20 [label="gini = 0.0\nsamples = 26\nvalue = [0, 0, 41]\nclass = virginica", fillcolor="#8139e5"] ;
16 -> 20 ;
}